svm_type epsilon_svr
kernel_type rbf
gamma 0.333333
nr_class 2
total_sv 174
rho -2.35393
SV
1 1:-39 2:-45 3:-31 
1 1:-40 2:-44 3:-31 
0.6600961815353101 1:-43 2:-43 3:-33 
1 1:-42 2:-43 3:-34 
0.1810028525623136 1:-41 2:-43 3:-34 
1 1:-42 2:-45 3:-32 
1 1:-38 2:-45 3:-33 
1 1:-41 2:-46 3:-32 
1 1:-39 2:-46 3:-32 
1 1:-40 2:-44 3:-34 
1 1:-38 2:-46 3:-33 
1 1:-40 2:-48 3:-30 
1 1:-39 2:-43 3:-30 
1 1:-38 2:-48 3:-32 
1 1:-36 2:-47 3:-36 
1 1:-34 2:-43 3:-32 
1 1:-37 2:-43 3:-33 
1 1:-36 2:-44 3:-35 
1 1:-38 2:-43 3:-35 
1 1:-40 2:-45 3:-35 
1 1:-40 2:-41 3:-36 
1 1:-39 2:-42 3:-36 
0.3406222367761268 1:-42 2:-44 3:-33 
1 1:-40 2:-42 3:-33 
1 1:-42 2:-41 3:-33 
0.7488473264239973 1:-41 2:-43 3:-32 
1 1:-40 2:-40 3:-35 
0.9297820344429883 1:-40 2:-40 3:-36 
1 1:-39 2:-39 3:-36 
1 1:-44 2:-46 3:-35 
1 1:-45 2:-46 3:-33 
1 1:-45 2:-44 3:-32 
1 1:-46 2:-42 3:-34 
0.7704950690428635 1:-45 2:-43 3:-34 
0.2190100851525684 1:-40 2:-43 3:-33 
0.9955053476789265 1:-44 2:-43 3:-34 
1 1:-42 2:-43 3:-30 
0.4259136524133626 1:-45 2:-43 3:-33 
1 1:-47 2:-43 3:-33 
1 1:-46 2:-39 3:-39 
1 1:-45 2:-40 3:-38 
1 1:-43 2:-40 3:-36 
1 1:-44 2:-40 3:-37 
1 1:-45 2:-39 3:-37 
1 1:-46 2:-40 3:-44 
1 1:-47 2:-39 3:-40 
1 1:-47 2:-43 3:-41 
1 1:-43 2:-42 3:-43 
1 1:-46 2:-41 3:-42 
1 1:-44 2:-41 3:-43 
1 1:-43 2:-40 3:-47 
1 1:-44 2:-41 3:-47 
1 1:-44 2:-40 3:-47 
1 1:-42 2:-40 3:-46 
-0.01685490212632779 1:-38 2:-47 3:-43 
0.4203309141801906 1:-38 2:-44 3:-39 
-0.4545952018541662 1:-38 2:-49 3:-39 
0.115105199349063 1:-37 2:-45 3:-43 
-0.2482953278426395 1:-33 2:-46 3:-37 
-0.5268215196007017 1:-33 2:-41 3:-34 
-0.4288580759213556 1:-34 2:-45 3:-36 
-0.3326620669753165 1:-31 2:-45 3:-36 
0.07378988416200613 1:-30 2:-42 3:-38 
1 1:-34 2:-44 3:-40 
1 1:-38 2:-43 3:-41 
0.7810082532242891 1:-32 2:-42 3:-39 
0.4237268607758656 1:-26 2:-42 3:-38 
-0.2909365598876869 1:-35 2:-44 3:-37 
0.355201955995847 1:-39 2:-39 3:-40 
-0.5209841779162845 1:-39 2:-40 3:-38 
0.1478271933227592 1:-39 2:-41 3:-42 
-0.1668419939776977 1:-41 2:-41 3:-40 
0.1097665570717799 1:-44 2:-31 3:-41 
-0.3607125714435719 1:-45 2:-33 3:-39 
0.2322359998699109 1:-45 2:-32 3:-43 
-0.06850798806362682 1:-45 2:-32 3:-40 
0.0410638207595509 1:-46 2:-33 3:-45 
1 1:-47 2:-34 3:-45 
-0.663426267462048 1:-47 2:-39 3:-45 
-0.1609702581224919 1:-45 2:-38 3:-45 
-0.6278613356294176 1:-46 2:-38 3:-43 
1 1:-48 2:-35 3:-46 
0.2365091128440727 1:-48 2:-34 3:-45 
-0.4537108909257538 1:-69 2:-35 3:-47 
-0.5915354880894773 1:-50 2:-40 3:-43 
-1 1:-48 2:-35 3:-45 
-0.1164271684472727 1:-47 2:-36 3:-45 
-1 1:-49 2:-35 3:-45 
-1 1:-46 2:-33 3:-44 
-0.3925330216993938 1:-46 2:-35 3:-44 
-1 1:-47 2:-19 3:-40 
-1 1:-47 2:-19 3:-44 
-1 1:-47 2:-19 3:-42 
-1 1:-49 2:-24 3:-44 
-1 1:-45 2:-24 3:-43 
-1 1:-39 2:-41 3:-41 
-1 1:-39 2:-40 3:-39 
-1 1:-35 2:-39 3:-42 
-1 1:-38 2:-38 3:-42 
-1 1:-38 2:-37 3:-41 
-1 1:-34 2:-41 3:-39 
-1 1:-33 2:-42 3:-41 
-1 1:-33 2:-42 3:-38 
-1 1:-36 2:-45 3:-39 
-1 1:-33 2:-42 3:-40 
-1 1:-24 2:-46 3:-42 
-1 1:-24 2:-46 3:-40 
-1 1:-23 2:-44 3:-37 
-1 1:-24 2:-44 3:-39 
-1 1:-23 2:-44 3:-41 
-1 1:-33 2:-48 3:-44 
-1 1:-36 2:-47 3:-44 
-1 1:-33 2:-47 3:-42 
-1 1:-33 2:-45 3:-41 
-1 1:-36 2:-52 3:-43 
-1 1:-35 2:-46 3:-43 
-1 1:-35 2:-47 3:-42 
-1 1:-38 2:-43 3:-41 
-1 1:-36 2:-48 3:-42 
-1 1:-34 2:-46 3:-41 
-1 1:-28 2:-42 3:-38 
-1 1:-29 2:-45 3:-33 
-1 1:-26 2:-43 3:-38 
-1 1:-29 2:-43 3:-35 
-1 1:-29 2:-42 3:-39 
-1 1:-36 2:-43 3:-39 
-1 1:-35 2:-43 3:-40 
-1 1:-37 2:-45 3:-41 
-1 1:-39 2:-44 3:-41 
-1 1:-37 2:-44 3:-40 
-1 1:-41 2:-34 3:-41 
-1 1:-50 2:-30 3:-42 
-1 1:-44 2:-33 3:-43 
-1 1:-42 2:-36 3:-41 
-1 1:-42 2:-32 3:-41 
-1 1:-43 2:-31 3:-40 
-1 1:-42 2:-28 3:-39 
-1 1:-43 2:-29 3:-43 
-1 1:-43 2:-29 3:-44 
-1 1:-78 2:-43 3:-44 
-1 1:-47 2:-36 3:-46 
-1 1:-49 2:-36 3:-46 
-1 1:-47 2:-35 3:-44 
-1 1:-45 2:-35 3:-45 
-1 1:-45 2:-36 3:-45 
0.3613981755628375 1:-39 2:-46 3:-38 
0.1837490591928368 1:-39 2:-45 3:-38 
0.06994774644117664 1:-40 2:-46 3:-37 
-0.929621098426304 1:-38 2:-45 3:-31 
-1 1:-39 2:-46 3:-32 
-0.4396440507916919 1:-39 2:-48 3:-32 
0.4280556896639061 1:-41 2:-48 3:-34 
0.5798446846408601 1:-36 2:-45 3:-29 
0.07785526165634075 1:-43 2:-41 3:-31 
0.5463986439544093 1:-31 2:-42 3:-26 
0.5444475232285874 1:-31 2:-40 3:-31 
0.1022075473998925 1:-33 2:-42 3:-32 
0.07140345737476594 1:-42 2:-28 3:-42 
0.1369208510343924 1:-42 2:-31 3:-43 
1 1:-42 2:-28 3:-42 
0.9837737052876805 1:-42 2:-31 3:-43 
0.5463418757123361 1:-67 2:-36 3:-41 
1 1:-37 2:-41 3:-39 
0.08671135118092763 1:-38 2:-39 3:-37 
-0.6843714082864424 1:-38 2:-41 3:-35 
0.661522795260246 1:-36 2:-42 3:-37 
-1 1:-47 2:-40 3:-39 
0.6402395043609528 1:-48 2:-40 3:-39 
0.5694269835655322 1:-52 2:-41 3:-41 
0.5691651847332905 1:-49 2:-42 3:-43 
0.5405963988726298 1:-44 2:-38 3:-43 
0.2094652589600409 1:-42 2:-39 3:-42 
0.4832846566521905 1:-42 2:-36 3:-44 
0.8755744811700438 1:-42 2:-37 3:-42 
