svm_type epsilon_svr
kernel_type rbf
gamma 0.333333
nr_class 2
total_sv 180
rho -2.06372
SV
-1 1:-39 2:-45 3:-31 
-1 1:-40 2:-44 3:-31 
-1 1:-43 2:-43 3:-33 
-1 1:-42 2:-43 3:-34 
-1 1:-41 2:-43 3:-34 
-1 1:-42 2:-45 3:-32 
-1 1:-38 2:-45 3:-33 
-1 1:-41 2:-44 3:-33 
-1 1:-41 2:-46 3:-32 
-1 1:-39 2:-46 3:-32 
-1 1:-40 2:-44 3:-34 
-1 1:-38 2:-46 3:-33 
-1 1:-40 2:-48 3:-30 
-1 1:-39 2:-43 3:-30 
-1 1:-38 2:-48 3:-32 
-1 1:-36 2:-47 3:-36 
-1 1:-34 2:-43 3:-32 
-1 1:-37 2:-43 3:-33 
-1 1:-36 2:-44 3:-35 
-1 1:-38 2:-43 3:-35 
-0.3157454647060636 1:-40 2:-41 3:-36 
-0.9011864658322872 1:-39 2:-42 3:-36 
1 1:-42 2:-44 3:-33 
-0.8530193485132108 1:-40 2:-42 3:-33 
-0.6108149452892575 1:-42 2:-41 3:-33 
-0.6492448414136704 1:-40 2:-40 3:-35 
-0.280264890488757 1:-40 2:-40 3:-36 
-1 1:-39 2:-39 3:-36 
0.2006934838146943 1:-44 2:-46 3:-35 
0.1669246431122792 1:-45 2:-46 3:-33 
0.2291637915416318 1:-45 2:-44 3:-32 
0.08912627947908913 1:-46 2:-42 3:-34 
-0.1851467097069557 1:-45 2:-43 3:-34 
1 1:-40 2:-43 3:-33 
1 1:-44 2:-43 3:-34 
0.6807657364173256 1:-42 2:-43 3:-30 
0.1743170061812596 1:-47 2:-43 3:-33 
0.02665284987421737 1:-46 2:-39 3:-39 
0.2479467912883919 1:-45 2:-40 3:-38 
1 1:-43 2:-40 3:-36 
0.8071158500297593 1:-44 2:-40 3:-37 
1 1:-45 2:-39 3:-37 
1 1:-46 2:-40 3:-44 
1 1:-47 2:-39 3:-40 
1 1:-47 2:-43 3:-41 
1 1:-43 2:-42 3:-43 
1 1:-46 2:-41 3:-42 
1 1:-44 2:-41 3:-43 
1 1:-43 2:-40 3:-47 
1 1:-44 2:-41 3:-47 
1 1:-44 2:-40 3:-47 
1 1:-42 2:-40 3:-46 
-1 1:-38 2:-47 3:-43 
-1 1:-38 2:-44 3:-39 
-1 1:-38 2:-49 3:-39 
-1 1:-37 2:-49 3:-43 
-1 1:-37 2:-45 3:-43 
-1 1:-33 2:-46 3:-37 
-1 1:-33 2:-41 3:-34 
-1 1:-34 2:-45 3:-36 
-1 1:-31 2:-45 3:-36 
-1 1:-30 2:-42 3:-38 
-0.1301811968571641 1:-34 2:-44 3:-40 
-0.3954017843066017 1:-32 2:-42 3:-39 
-0.2814076006174069 1:-26 2:-42 3:-38 
-0.1652860367588331 1:-35 2:-44 3:-37 
0.02193691940821633 1:-39 2:-39 3:-40 
0.2651513031784022 1:-39 2:-40 3:-38 
0.1648292671961323 1:-39 2:-41 3:-42 
0.00652834918739015 1:-38 2:-39 3:-40 
0.1113691925988827 1:-41 2:-41 3:-40 
0.4333485229922741 1:-44 2:-31 3:-41 
0.8753772797014255 1:-44 2:-31 3:-39 
1 1:-45 2:-33 3:-39 
0.779513512731392 1:-45 2:-32 3:-43 
0.7452647947738548 1:-45 2:-32 3:-40 
1 1:-46 2:-33 3:-45 
-0.435407465510691 1:-47 2:-34 3:-45 
1 1:-47 2:-39 3:-45 
1 1:-45 2:-38 3:-45 
1 1:-46 2:-38 3:-43 
1 1:-48 2:-35 3:-46 
1 1:-48 2:-34 3:-45 
1 1:-46 2:-35 3:-47 
1 1:-69 2:-35 3:-47 
1 1:-50 2:-40 3:-43 
1 1:-48 2:-35 3:-45 
1 1:-47 2:-36 3:-45 
1 1:-49 2:-35 3:-45 
1 1:-46 2:-33 3:-44 
1 1:-46 2:-35 3:-44 
1 1:-47 2:-19 3:-40 
1 1:-47 2:-19 3:-44 
1 1:-47 2:-19 3:-42 
1 1:-49 2:-24 3:-44 
1 1:-45 2:-24 3:-43 
0.268378044316579 1:-39 2:-41 3:-41 
0.2467079447613621 1:-35 2:-39 3:-42 
0.1222874254091591 1:-38 2:-38 3:-42 
0.1537861966050364 1:-38 2:-37 3:-41 
-0.831223174775642 1:-34 2:-41 3:-39 
-1 1:-33 2:-42 3:-41 
-0.69870961879986 1:-33 2:-42 3:-38 
-0.6569131836749873 1:-36 2:-45 3:-39 
0.02332570299258383 1:-33 2:-42 3:-40 
-1 1:-24 2:-46 3:-42 
-1 1:-24 2:-46 3:-40 
-1 1:-23 2:-44 3:-37 
-1 1:-24 2:-44 3:-39 
-1 1:-23 2:-44 3:-41 
-1 1:-33 2:-48 3:-44 
-1 1:-36 2:-47 3:-44 
-1 1:-33 2:-47 3:-42 
-1 1:-33 2:-45 3:-41 
-1 1:-36 2:-52 3:-43 
-1 1:-35 2:-46 3:-43 
-1 1:-35 2:-47 3:-42 
-1 1:-38 2:-43 3:-41 
-1 1:-36 2:-48 3:-42 
-1 1:-34 2:-46 3:-41 
-1 1:-28 2:-42 3:-38 
-1 1:-29 2:-45 3:-33 
-1 1:-26 2:-43 3:-38 
-1 1:-29 2:-43 3:-35 
-1 1:-29 2:-42 3:-39 
-0.8660749736414045 1:-36 2:-43 3:-39 
-0.4107555130938922 1:-35 2:-43 3:-40 
-0.4387833620527734 1:-37 2:-45 3:-41 
-0.5509398783716509 1:-39 2:-44 3:-41 
0.4073117452134683 1:-37 2:-44 3:-40 
1 1:-41 2:-34 3:-41 
1 1:-50 2:-30 3:-42 
1 1:-44 2:-33 3:-43 
1 1:-42 2:-36 3:-41 
0.9898314435577888 1:-42 2:-32 3:-41 
1 1:-43 2:-31 3:-40 
1 1:-42 2:-28 3:-39 
1 1:-43 2:-29 3:-43 
1 1:-43 2:-29 3:-44 
1 1:-78 2:-43 3:-44 
1 1:-47 2:-36 3:-46 
1 1:-49 2:-36 3:-46 
1 1:-47 2:-35 3:-44 
1 1:-45 2:-35 3:-45 
1 1:-45 2:-36 3:-45 
-1 1:-39 2:-46 3:-38 
-1 1:-39 2:-46 3:-37 
-1 1:-39 2:-45 3:-38 
-1 1:-40 2:-46 3:-37 
-1 1:-36 2:-45 3:-36 
-1 1:-38 2:-45 3:-31 
-1 1:-40 2:-48 3:-32 
0.6412249172182019 1:-39 2:-46 3:-32 
-1 1:-39 2:-48 3:-32 
-1 1:-41 2:-48 3:-34 
-1 1:-36 2:-45 3:-29 
-1 1:-43 2:-41 3:-31 
-1 1:-31 2:-42 3:-26 
-1 1:-31 2:-40 3:-31 
-0.6080054247041847 1:-33 2:-42 3:-32 
1 1:-67 2:-36 3:-41 
0.4194675162493491 1:-42 2:-28 3:-42 
0.3389910734945958 1:-42 2:-31 3:-43 
1 1:-42 2:-28 3:-42 
0.9589680740739824 1:-42 2:-31 3:-43 
1 1:-67 2:-36 3:-41 
0.3744951923030475 1:-37 2:-41 3:-39 
0.6653796972102907 1:-38 2:-39 3:-37 
1 1:-38 2:-41 3:-35 
0.6283313322032307 1:-36 2:-42 3:-37 
1 1:-47 2:-40 3:-39 
1 1:-46 2:-41 3:-40 
1 1:-48 2:-40 3:-39 
1 1:-46 2:-41 3:-39 
1 1:-52 2:-41 3:-41 
1 1:-49 2:-42 3:-43 
1 1:-44 2:-38 3:-43 
1 1:-42 2:-39 3:-42 
1 1:-42 2:-36 3:-44 
1 1:-42 2:-37 3:-42 
